<?xml version="1.0"?>
<opencv_storage>
<cascade>
  <stageType>BOOST</stageType>
  <featureType>HAAR</featureType>
  <height>24</height>
  <width>24</width>
  <stageParams>
    <boostType>GAB</boostType>
    <minHitRate>9.9500000476837158e-01</minHitRate>
    <maxFalseAlarm>5.0000000000000000e-01</maxFalseAlarm>
    <weightTrimRate>9.4999999999999996e-01</weightTrimRate>
    <maxDepth>1</maxDepth>
    <maxWeakCount>100</maxWeakCount></stageParams>
  <featureParams>
    <maxCatCount>0</maxCatCount>
    <featSize>1</featSize>
    <mode>BASIC</mode></featureParams>
  <stageNum>32</stageNum>
  <stages>
    <!-- stage 0 -->
    <_>
      <maxWeakCount>2</maxWeakCount>
      <stageThreshold>-5.7357672601938248e-02</stageThreshold>
      <weakClassifiers>
        <_>
          <internalNodes>
            0 -1 4 1.9222758710384369e-02</internalNodes>
          <leafValues>
            -8.0952382087707520e-01 9.0476191043853760e-01</leafValues></_>
        <_>
          <internalNodes>
            0 -1 35 -2.1092214155942202e-03</internalNodes>
          <leafValues>
            -1. 7.5216615200042725e-01</leafValues></_></weakClassifiers></_>
    <!-- stage 1 -->
    <_>
      <maxWeakCount>2</maxWeakCount>
      <stageThreshold>2.5701525807380676e-01</stageThreshold>
      <weakClassifiers>
        <_>
          <internalNodes>
            0 -1 30 1.2109546223655343e-03</internalNodes>
          <leafValues>
            1. -6.6666668653488159e-01</leafValues></_>
        <_>
          <internalNodes>
            0 -1 13 1.5289198607206345e-02</internalNodes>
          <leafValues>
            -7.3784792423248291e-01 9.2368191480636597e-01</leafValues></_></weakClassifiers></_>
    <!-- stage 2 -->
    <_>
      <maxWeakCount>1</maxWeakCount>
      <stageThreshold>8.3333331346511841e-01</stageThreshold>
      <weakClassifiers>
        <_>
          <internalNodes>
            0 -1 39 2.0459543447941542e-03</internalNodes>
          <leafValues>
            8.3333331346511841e-01 -1.</leafValues></_></weakClassifiers></_>
    <!-- stage 3 -->
    <_>
      <maxWeakCount>2</maxWeakCount>
      <stageThreshold>-8.9471504092216492e-02</stageThreshold>
      <weakClassifiers>
        <_>
          <internalNodes>
            0 -1 19 -2.9490711167454720e-03</internalNodes>
          <leafValues>
            8.1818181276321411e-01 -8.0000001192092896e-01</leafValues></_>
        <_>
          <internalNodes>
            0 -1 25 -2.8048562817275524e-03</internalNodes>
          <leafValues>
            -1. 7.1052849292755127e-01</leafValues></_></weakClassifiers></_>
    <!-- stage 4 -->
    <_>
      <maxWeakCount>1</maxWeakCount>
      <stageThreshold>6.2962961196899414e-01</stageThreshold>
      <weakClassifiers>
        <_>
          <internalNodes>
            0 -1 43 9.8086631624028087e-05</internalNodes>
          <leafValues>
            6.2962961196899414e-01 -1.</leafValues></_></weakClassifiers></_>
    <!-- stage 5 -->
    <_>
      <maxWeakCount>1</maxWeakCount>
      <stageThreshold>6.9230771064758301e-01</stageThreshold>
      <weakClassifiers>
        <_>
          <internalNodes>
            0 -1 12 5.4676481522619724e-04</internalNodes>
          <leafValues>
            6.9230771064758301e-01 -1.</leafValues></_></weakClassifiers></_>
    <!-- stage 6 -->
    <_>
      <maxWeakCount>2</maxWeakCount>
      <stageThreshold>1.4748705923557281e-01</stageThreshold>
      <weakClassifiers>
        <_>
          <internalNodes>
            0 -1 10 2.1061342209577560e-02</internalNodes>
          <leafValues>
            -6.6666668653488159e-01 1.</leafValues></_>
        <_>
          <internalNodes>
            0 -1 15 -6.0896379873156548e-03</internalNodes>
          <leafValues>
            8.6033117771148682e-01 -8.5251295566558838e-01</leafValues></_></weakClassifiers></_>
    <!-- stage 7 -->
    <_>
      <maxWeakCount>2</maxWeakCount>
      <stageThreshold>3.3333334326744080e-01</stageThreshold>
      <weakClassifiers>
        <_>
          <internalNodes>
            0 -1 38 7.8529799357056618e-03</internalNodes>
          <leafValues>
            -6.6666668653488159e-01 1.</leafValues></_>
        <_>
          <internalNodes>
            0 -1 23 1.2999970465898514e-02</internalNodes>
          <leafValues>
            -6.4614552259445190e-01 1.</leafValues></_></weakClassifiers></_>
    <!-- stage 8 -->
    <_>
      <maxWeakCount>1</maxWeakCount>
      <stageThreshold>6.2962961196899414e-01</stageThreshold>
      <weakClassifiers>
        <_>
          <internalNodes>
            0 -1 44 -6.7525607300922275e-04</internalNodes>
          <leafValues>
            -1. 6.2962961196899414e-01</leafValues></_></weakClassifiers></_>
    <!-- stage 9 -->
    <_>
      <maxWeakCount>1</maxWeakCount>
      <stageThreshold>5.7142859697341919e-01</stageThreshold>
      <weakClassifiers>
        <_>
          <internalNodes>
            0 -1 53 -1.5388672181870788e-04</internalNodes>
          <leafValues>
            -1. 5.7142859697341919e-01</leafValues></_></weakClassifiers></_>
    <!-- stage 10 -->
    <_>
      <maxWeakCount>1</maxWeakCount>
      <stageThreshold>5.7142859697341919e-01</stageThreshold>
      <weakClassifiers>
        <_>
          <internalNodes>
            0 -1 17 -1.7597246915102005e-04</internalNodes>
          <leafValues>
            -1. 5.7142859697341919e-01</leafValues></_></weakClassifiers></_>
    <!-- stage 11 -->
    <_>
      <maxWeakCount>1</maxWeakCount>
      <stageThreshold>5.7142859697341919e-01</stageThreshold>
      <weakClassifiers>
        <_>
          <internalNodes>
            0 -1 1 1.2146565131843090e-04</internalNodes>
          <leafValues>
            5.7142859697341919e-01 -1.</leafValues></_></weakClassifiers></_>
    <!-- stage 12 -->
    <_>
      <maxWeakCount>2</maxWeakCount>
      <stageThreshold>-1.7559796571731567e-01</stageThreshold>
      <weakClassifiers>
        <_>
          <internalNodes>
            0 -1 52 -1.6850765096023679e-03</internalNodes>
          <leafValues>
            -8.8235294818878174e-01 6.8000000715255737e-01</leafValues></_>
        <_>
          <internalNodes>
            0 -1 18 -2.3503826931118965e-02</internalNodes>
          <leafValues>
            7.0675498247146606e-01 -8.4945225715637207e-01</leafValues></_></weakClassifiers></_>
    <!-- stage 13 -->
    <_>
      <maxWeakCount>2</maxWeakCount>
      <stageThreshold>1.2198410928249359e-01</stageThreshold>
      <weakClassifiers>
        <_>
          <internalNodes>
            0 -1 41 1.5547640941804275e-05</internalNodes>
          <leafValues>
            -8.0000001192092896e-01 8.1818181276321411e-01</leafValues></_>
        <_>
          <internalNodes>
            0 -1 37 -1.8101132809533738e-05</internalNodes>
          <leafValues>
            9.2198413610458374e-01 -6.9310873746871948e-01</leafValues></_></weakClassifiers></_>
    <!-- stage 14 -->
    <_>
      <maxWeakCount>2</maxWeakCount>
      <stageThreshold>1.0243056714534760e-01</stageThreshold>
      <weakClassifiers>
        <_>
          <internalNodes>
            0 -1 32 -1.8050326034426689e-03</internalNodes>
          <leafValues>
            7.2727274894714355e-01 -6.9999998807907104e-01</leafValues></_>
        <_>
          <internalNodes>
            0 -1 5 -2.7322582900524139e-02</internalNodes>
          <leafValues>
            1. -6.2484216690063477e-01</leafValues></_></weakClassifiers></_>
    <!-- stage 15 -->
    <_>
      <maxWeakCount>2</maxWeakCount>
      <stageThreshold>1.7797347903251648e-01</stageThreshold>
      <weakClassifiers>
        <_>
          <internalNodes>
            0 -1 22 -2.9643613379448652e-03</internalNodes>
          <leafValues>
            8.8235294818878174e-01 -5.1999998092651367e-01</leafValues></_>
        <_>
          <internalNodes>
            0 -1 27 1.2642295041587204e-04</internalNodes>
          <leafValues>
            -7.0437943935394287e-01 7.8285813331604004e-01</leafValues></_></weakClassifiers></_>
    <!-- stage 16 -->
    <_>
      <maxWeakCount>2</maxWeakCount>
      <stageThreshold>-2.2517804801464081e-01</stageThreshold>
      <weakClassifiers>
        <_>
          <internalNodes>
            0 -1 54 2.3151832283474505e-04</internalNodes>
          <leafValues>
            6.1538463830947876e-01 -8.7500000000000000e-01</leafValues></_>
        <_>
          <internalNodes>
            0 -1 40 -8.8468531612306833e-04</internalNodes>
          <leafValues>
            -1. 6.4982193708419800e-01</leafValues></_></weakClassifiers></_>
    <!-- stage 17 -->
    <_>
      <maxWeakCount>2</maxWeakCount>
      <stageThreshold>-1.1918455362319946e-01</stageThreshold>
      <weakClassifiers>
        <_>
          <internalNodes>
            0 -1 49 7.8075900091789663e-05</internalNodes>
          <leafValues>
            6.6666668653488159e-01 -7.7777779102325439e-01</leafValues></_>
        <_>
          <internalNodes>
            0 -1 8 3.8780897739343345e-05</internalNodes>
          <leafValues>
            -7.8585124015808105e-01 7.0125406980514526e-01</leafValues></_></weakClassifiers></_>
    <!-- stage 18 -->
    <_>
      <maxWeakCount>2</maxWeakCount>
      <stageThreshold>4.1158730164170265e-03</stageThreshold>
      <weakClassifiers>
        <_>
          <internalNodes>
            0 -1 11 8.8588916696608067e-04</internalNodes>
          <leafValues>
            -6.3636362552642822e-01 8.0000001192092896e-01</leafValues></_>
        <_>
          <internalNodes>
            0 -1 7 -1.9555891049094498e-04</internalNodes>
          <leafValues>
            -7.9588413238525391e-01 7.4208581447601318e-01</leafValues></_></weakClassifiers></_>
    <!-- stage 19 -->
    <_>
      <maxWeakCount>2</maxWeakCount>
      <stageThreshold>-1.7485554516315460e-01</stageThreshold>
      <weakClassifiers>
        <_>
          <internalNodes>
            0 -1 21 -2.8552935691550374e-04</internalNodes>
          <leafValues>
            -8.7500000000000000e-01 6.1538463830947876e-01</leafValues></_>
        <_>
          <internalNodes>
            0 -1 46 1.6017185407690704e-04</internalNodes>
          <leafValues>
            7.5823777914047241e-01 -7.9024016857147217e-01</leafValues></_></weakClassifiers></_>
    <!-- stage 20 -->
    <_>
      <maxWeakCount>2</maxWeakCount>
      <stageThreshold>9.8967939615249634e-02</stageThreshold>
      <weakClassifiers>
        <_>
          <internalNodes>
            0 -1 34 -1.0396663128631189e-04</internalNodes>
          <leafValues>
            8.9473682641983032e-01 -6.5217393636703491e-01</leafValues></_>
        <_>
          <internalNodes>
            0 -1 20 -3.2582040876150131e-04</internalNodes>
          <leafValues>
            7.9668152332305908e-01 -7.9576891660690308e-01</leafValues></_></weakClassifiers></_>
    <!-- stage 21 -->
    <_>
      <maxWeakCount>1</maxWeakCount>
      <stageThreshold>5.1724135875701904e-01</stageThreshold>
      <weakClassifiers>
        <_>
          <internalNodes>
            0 -1 2 -2.4910605861805379e-04</internalNodes>
          <leafValues>
            -1. 5.1724135875701904e-01</leafValues></_></weakClassifiers></_>
    <!-- stage 22 -->
    <_>
      <maxWeakCount>2</maxWeakCount>
      <stageThreshold>3.6147448420524597e-01</stageThreshold>
      <weakClassifiers>
        <_>
          <internalNodes>
            0 -1 29 -8.2704296801239252e-04</internalNodes>
          <leafValues>
            1. -5.3846156597137451e-01</leafValues></_>
        <_>
          <internalNodes>
            0 -1 36 -8.9717702940106392e-04</internalNodes>
          <leafValues>
            1. -6.3852554559707642e-01</leafValues></_></weakClassifiers></_>
    <!-- stage 23 -->
    <_>
      <maxWeakCount>2</maxWeakCount>
      <stageThreshold>-1.8036347627639771e-01</stageThreshold>
      <weakClassifiers>
        <_>
          <internalNodes>
            0 -1 42 -2.4817549274303019e-04</internalNodes>
          <leafValues>
            -8.7500000000000000e-01 6.1538463830947876e-01</leafValues></_>
        <_>
          <internalNodes>
            0 -1 31 1.5547640941804275e-05</internalNodes>
          <leafValues>
            -7.9574811458587646e-01 8.1302797794342041e-01</leafValues></_></weakClassifiers></_>
    <!-- stage 24 -->
    <_>
      <maxWeakCount>2</maxWeakCount>
      <stageThreshold>2.5446508079767227e-02</stageThreshold>
      <weakClassifiers>
        <_>
          <internalNodes>
            0 -1 28 1.5408428153023124e-03</internalNodes>
          <leafValues>
            -5.1999998092651367e-01 8.8235294818878174e-01</leafValues></_>
        <_>
          <internalNodes>
            0 -1 6 2.0227298140525818e-02</internalNodes>
          <leafValues>
            6.8473964929580688e-01 -8.5690641403198242e-01</leafValues></_></weakClassifiers></_>
    <!-- stage 25 -->
    <_>
      <maxWeakCount>1</maxWeakCount>
      <stageThreshold>5.7142859697341919e-01</stageThreshold>
      <weakClassifiers>
        <_>
          <internalNodes>
            0 -1 45 1.9889228860847652e-04</internalNodes>
          <leafValues>
            5.7142859697341919e-01 -1.</leafValues></_></weakClassifiers></_>
    <!-- stage 26 -->
    <_>
      <maxWeakCount>2</maxWeakCount>
      <stageThreshold>5.3382225334644318e-02</stageThreshold>
      <weakClassifiers>
        <_>
          <internalNodes>
            0 -1 50 1.3067889085505158e-05</internalNodes>
          <leafValues>
            -6.3636362552642822e-01 8.0000001192092896e-01</leafValues></_>
        <_>
          <internalNodes>
            0 -1 9 3.1375139951705933e-04</internalNodes>
          <leafValues>
            7.9430228471755981e-01 -7.4661779403686523e-01</leafValues></_></weakClassifiers></_>
    <!-- stage 27 -->
    <_>
      <maxWeakCount>2</maxWeakCount>
      <stageThreshold>-1.9002960622310638e-01</stageThreshold>
      <weakClassifiers>
        <_>
          <internalNodes>
            0 -1 24 -4.5765994582325220e-04</internalNodes>
          <leafValues>
            -7.7777779102325439e-01 6.6666668653488159e-01</leafValues></_>
        <_>
          <internalNodes>
            0 -1 51 6.5694871591404080e-04</internalNodes>
          <leafValues>
            7.6183938980102539e-01 -8.5669630765914917e-01</leafValues></_></weakClassifiers></_>
    <!-- stage 28 -->
    <_>
      <maxWeakCount>2</maxWeakCount>
      <stageThreshold>-1.3331840932369232e-01</stageThreshold>
      <weakClassifiers>
        <_>
          <internalNodes>
            0 -1 16 -7.3725134134292603e-03</internalNodes>
          <leafValues>
            -8.8235294818878174e-01 6.8000000715255737e-01</leafValues></_>
        <_>
          <internalNodes>
            0 -1 14 -1.9847319927066565e-03</internalNodes>
          <leafValues>
            7.4903452396392822e-01 -7.8863155841827393e-01</leafValues></_></weakClassifiers></_>
    <!-- stage 29 -->
    <_>
      <maxWeakCount>2</maxWeakCount>
      <stageThreshold>4.5881292223930359e-01</stageThreshold>
      <weakClassifiers>
        <_>
          <internalNodes>
            0 -1 26 2.8116151224821806e-03</internalNodes>
          <leafValues>
            -4.8148149251937866e-01 1.</leafValues></_>
        <_>
          <internalNodes>
            0 -1 0 -5.8083022013306618e-03</internalNodes>
          <leafValues>
            1. -5.4118710756301880e-01</leafValues></_></weakClassifiers></_>
    <!-- stage 30 -->
    <_>
      <maxWeakCount>2</maxWeakCount>
      <stageThreshold>-2.4552015960216522e-01</stageThreshold>
      <weakClassifiers>
        <_>
          <internalNodes>
            0 -1 47 -2.7072019292972982e-04</internalNodes>
          <leafValues>
            -8.8235294818878174e-01 6.8000000715255737e-01</leafValues></_>
        <_>
          <internalNodes>
            0 -1 48 -6.7407247843220830e-04</internalNodes>
          <leafValues>
            -1. 6.3683277368545532e-01</leafValues></_></weakClassifiers></_>
    <!-- stage 31 -->
    <_>
      <maxWeakCount>2</maxWeakCount>
      <stageThreshold>1.3137093186378479e-01</stageThreshold>
      <weakClassifiers>
        <_>
          <internalNodes>
            0 -1 33 3.6857977509498596e-02</internalNodes>
          <leafValues>
            -5.8333331346511841e-01 8.8888889551162720e-01</leafValues></_>
        <_>
          <internalNodes>
            0 -1 3 8.4610059857368469e-03</internalNodes>
          <leafValues>
            8.5524886846542358e-01 -7.5751799345016479e-01</leafValues></_></weakClassifiers></_></stages>
  <features>
    <_>
      <rects>
        <_>
          0 0 4 18 -1.</_>
        <_>
          0 0 2 9 2.</_>
        <_>
          2 9 2 9 2.</_></rects>
      <tilted>0</tilted></_>
    <_>
      <rects>
        <_>
          0 1 2 3 -1.</_>
        <_>
          0 2 2 1 3.</_></rects>
      <tilted>0</tilted></_>
    <_>
      <rects>
        <_>
          0 1 5 2 -1.</_>
        <_>
          0 2 5 1 2.</_></rects>
      <tilted>0</tilted></_>
    <_>
      <rects>
        <_>
          0 3 3 18 -1.</_>
        <_>
          0 9 3 6 3.</_></rects>
      <tilted>0</tilted></_>
    <_>
      <rects>
        <_>
          0 6 14 14 -1.</_>
        <_>
          0 6 7 7 2.</_>
        <_>
          7 13 7 7 2.</_></rects>
      <tilted>0</tilted></_>
    <_>
      <rects>
        <_>
          0 11 21 2 -1.</_>
        <_>
          7 11 7 2 3.</_></rects>
      <tilted>0</tilted></_>
    <_>
      <rects>
        <_>
          0 14 14 10 -1.</_>
        <_>
          0 19 14 5 2.</_></rects>
      <tilted>0</tilted></_>
    <_>
      <rects>
        <_>
          0 19 4 4 -1.</_>
        <_>
          0 19 2 2 2.</_>
        <_>
          2 21 2 2 2.</_></rects>
      <tilted>0</tilted></_>
    <_>
      <rects>
        <_>
          1 0 5 4 -1.</_>
        <_>
          1 2 5 2 2.</_></rects>
      <tilted>0</tilted></_>
    <_>
      <rects>
        <_>
          1 2 1 6 -1.</_>
        <_>
          1 4 1 2 3.</_></rects>
      <tilted>0</tilted></_>
    <_>
      <rects>
        <_>
          1 5 12 14 -1.</_>
        <_>
          1 5 6 7 2.</_>
        <_>
          7 12 6 7 2.</_></rects>
      <tilted>0</tilted></_>
    <_>
      <rects>
        <_>
          1 21 6 3 -1.</_>
        <_>
          3 21 2 3 3.</_></rects>
      <tilted>0</tilted></_>
    <_>
      <rects>
        <_>
          2 0 2 2 -1.</_>
        <_>
          3 0 1 2 2.</_></rects>
      <tilted>0</tilted></_>
    <_>
      <rects>
        <_>
          2 5 8 14 -1.</_>
        <_>
          2 5 4 7 2.</_>
        <_>
          6 12 4 7 2.</_></rects>
      <tilted>0</tilted></_>
    <_>
      <rects>
        <_>
          2 5 6 9 -1.</_>
        <_>
          2 8 6 3 3.</_></rects>
      <tilted>0</tilted></_>
    <_>
      <rects>
        <_>
          2 6 6 5 -1.</_>
        <_>
          5 6 3 5 2.</_></rects>
      <tilted>0</tilted></_>
    <_>
      <rects>
        <_>
          2 16 12 4 -1.</_>
        <_>
          2 18 12 2 2.</_></rects>
      <tilted>0</tilted></_>
    <_>
      <rects>
        <_>
          3 0 4 2 -1.</_>
        <_>
          3 0 2 1 2.</_>
        <_>
          5 1 2 1 2.</_></rects>
      <tilted>0</tilted></_>
    <_>
      <rects>
        <_>
          3 0 18 14 -1.</_>
        <_>
          9 0 6 14 3.</_></rects>
      <tilted>0</tilted></_>
    <_>
      <rects>
        <_>
          3 6 4 6 -1.</_>
        <_>
          5 6 2 6 2.</_></rects>
      <tilted>0</tilted></_>
    <_>
      <rects>
        <_>
          3 6 4 6 -1.</_>
        <_>
          3 8 4 2 3.</_></rects>
      <tilted>0</tilted></_>
    <_>
      <rects>
        <_>
          3 10 1 2 -1.</_>
        <_>
          3 11 1 1 2.</_></rects>
      <tilted>0</tilted></_>
    <_>
      <rects>
        <_>
          5 0 4 9 -1.</_>
        <_>
          7 0 2 9 2.</_></rects>
      <tilted>0</tilted></_>
    <_>
      <rects>
        <_>
          5 8 18 3 -1.</_>
        <_>
          14 8 9 3 2.</_></rects>
      <tilted>0</tilted></_>
    <_>
      <rects>
        <_>
          7 17 1 6 -1.</_>
        <_>
          7 19 1 2 3.</_></rects>
      <tilted>0</tilted></_>
    <_>
      <rects>
        <_>
          8 0 3 6 -1.</_>
        <_>
          9 0 1 6 3.</_></rects>
      <tilted>0</tilted></_>
    <_>
      <rects>
        <_>
          8 3 4 8 -1.</_>
        <_>
          8 3 2 4 2.</_>
        <_>
          10 7 2 4 2.</_></rects>
      <tilted>0</tilted></_>
    <_>
      <rects>
        <_>
          8 5 3 6 -1.</_>
        <_>
          9 5 1 6 3.</_></rects>
      <tilted>0</tilted></_>
    <_>
      <rects>
        <_>
          8 10 1 6 -1.</_>
        <_>
          8 12 1 2 3.</_></rects>
      <tilted>0</tilted></_>
    <_>
      <rects>
        <_>
          9 10 2 3 -1.</_>
        <_>
          9 11 2 1 3.</_></rects>
      <tilted>0</tilted></_>
    <_>
      <rects>
        <_>
          10 1 4 18 -1.</_>
        <_>
          12 1 2 18 2.</_></rects>
      <tilted>0</tilted></_>
    <_>
      <rects>
        <_>
          10 20 1 3 -1.</_>
        <_>
          10 21 1 1 3.</_></rects>
      <tilted>0</tilted></_>
    <_>
      <rects>
        <_>
          11 2 6 7 -1.</_>
        <_>
          13 2 2 7 3.</_></rects>
      <tilted>0</tilted></_>
    <_>
      <rects>
        <_>
          12 8 12 15 -1.</_>
        <_>
          16 8 4 15 3.</_></rects>
      <tilted>0</tilted></_>
    <_>
      <rects>
        <_>
          13 15 1 8 -1.</_>
        <_>
          13 19 1 4 2.</_></rects>
      <tilted>0</tilted></_>
    <_>
      <rects>
        <_>
          14 0 9 1 -1.</_>
        <_>
          17 0 3 1 3.</_></rects>
      <tilted>0</tilted></_>
    <_>
      <rects>
        <_>
          15 1 6 6 -1.</_>
        <_>
          17 1 2 6 3.</_></rects>
      <tilted>0</tilted></_>
    <_>
      <rects>
        <_>
          15 2 6 1 -1.</_>
        <_>
          18 2 3 1 2.</_></rects>
      <tilted>0</tilted></_>
    <_>
      <rects>
        <_>
          15 8 9 5 -1.</_>
        <_>
          18 8 3 5 3.</_></rects>
      <tilted>0</tilted></_>
    <_>
      <rects>
        <_>
          16 0 6 2 -1.</_>
        <_>
          18 0 2 2 3.</_></rects>
      <tilted>0</tilted></_>
    <_>
      <rects>
        <_>
          17 0 4 4 -1.</_>
        <_>
          17 0 2 2 2.</_>
        <_>
          19 2 2 2 2.</_></rects>
      <tilted>0</tilted></_>
    <_>
      <rects>
        <_>
          17 22 3 2 -1.</_>
        <_>
          18 22 1 2 3.</_></rects>
      <tilted>0</tilted></_>
    <_>
      <rects>
        <_>
          18 15 6 3 -1.</_>
        <_>
          18 16 6 1 3.</_></rects>
      <tilted>0</tilted></_>
    <_>
      <rects>
        <_>
          19 0 3 1 -1.</_>
        <_>
          20 0 1 1 3.</_></rects>
      <tilted>0</tilted></_>
    <_>
      <rects>
        <_>
          20 0 2 4 -1.</_>
        <_>
          20 0 1 2 2.</_>
        <_>
          21 2 1 2 2.</_></rects>
      <tilted>0</tilted></_>
    <_>
      <rects>
        <_>
          20 5 2 3 -1.</_>
        <_>
          20 6 2 1 3.</_></rects>
      <tilted>0</tilted></_>
    <_>
      <rects>
        <_>
          20 20 2 3 -1.</_>
        <_>
          21 20 1 3 2.</_></rects>
      <tilted>0</tilted></_>
    <_>
      <rects>
        <_>
          21 1 2 6 -1.</_>
        <_>
          21 1 1 3 2.</_>
        <_>
          22 4 1 3 2.</_></rects>
      <tilted>0</tilted></_>
    <_>
      <rects>
        <_>
          21 1 3 6 -1.</_>
        <_>
          21 3 3 2 3.</_></rects>
      <tilted>0</tilted></_>
    <_>
      <rects>
        <_>
          21 5 2 2 -1.</_>
        <_>
          21 6 2 1 2.</_></rects>
      <tilted>0</tilted></_>
    <_>
      <rects>
        <_>
          21 11 1 2 -1.</_>
        <_>
          21 12 1 1 2.</_></rects>
      <tilted>0</tilted></_>
    <_>
      <rects>
        <_>
          22 8 2 9 -1.</_>
        <_>
          22 11 2 3 3.</_></rects>
      <tilted>0</tilted></_>
    <_>
      <rects>
        <_>
          22 10 2 8 -1.</_>
        <_>
          22 14 2 4 2.</_></rects>
      <tilted>0</tilted></_>
    <_>
      <rects>
        <_>
          23 0 1 3 -1.</_>
        <_>
          23 1 1 1 3.</_></rects>
      <tilted>0</tilted></_>
    <_>
      <rects>
        <_>
          23 5 1 4 -1.</_>
        <_>
          23 7 1 2 2.</_></rects>
      <tilted>0</tilted></_></features></cascade>
</opencv_storage>
