<?xml version="1.0"?>
<opencv_storage>
<cascade>
  <stageType>BOOST</stageType>
  <featureType>HAAR</featureType>
  <height>24</height>
  <width>24</width>
  <stageParams>
    <boostType>GAB</boostType>
    <minHitRate>9.9500000476837158e-01</minHitRate>
    <maxFalseAlarm>5.0000000000000000e-01</maxFalseAlarm>
    <weightTrimRate>9.4999999999999996e-01</weightTrimRate>
    <maxDepth>1</maxDepth>
    <maxWeakCount>100</maxWeakCount></stageParams>
  <featureParams>
    <maxCatCount>0</maxCatCount>
    <featSize>1</featSize>
    <mode>BASIC</mode></featureParams>
  <stageNum>35</stageNum>
  <stages>
    <!-- stage 0 -->
    <_>
      <maxWeakCount>2</maxWeakCount>
      <stageThreshold>8.0004215240478516e-02</stageThreshold>
      <weakClassifiers>
        <_>
          <internalNodes>
            0 -1 9 1.0398346185684204e-01</internalNodes>
          <leafValues>
            -9.1304349899291992e-01 1.</leafValues></_>
        <_>
          <internalNodes>
            0 -1 11 6.0543581843376160e-02</internalNodes>
          <leafValues>
            -9.1999578475952148e-01 1.</leafValues></_></weakClassifiers></_>
    <!-- stage 1 -->
    <_>
      <maxWeakCount>2</maxWeakCount>
      <stageThreshold>1.6666667163372040e-01</stageThreshold>
      <weakClassifiers>
        <_>
          <internalNodes>
            0 -1 25 3.1255986541509628e-03</internalNodes>
          <leafValues>
            -8.3333331346511841e-01 1.</leafValues></_>
        <_>
          <internalNodes>
            0 -1 45 4.1768893599510193e-02</internalNodes>
          <leafValues>
            -7.3324376344680786e-01 1.</leafValues></_></weakClassifiers></_>
    <!-- stage 2 -->
    <_>
      <maxWeakCount>2</maxWeakCount>
      <stageThreshold>1.7222471535205841e-01</stageThreshold>
      <weakClassifiers>
        <_>
          <internalNodes>
            0 -1 20 6.0838706791400909e-02</internalNodes>
          <leafValues>
            -6.2962961196899414e-01 1.</leafValues></_>
        <_>
          <internalNodes>
            0 -1 58 -2.4696126274648122e-05</internalNodes>
          <leafValues>
            8.0185437202453613e-01 -8.0338925123214722e-01</leafValues></_></weakClassifiers></_>
    <!-- stage 3 -->
    <_>
      <maxWeakCount>2</maxWeakCount>
      <stageThreshold>3.1694081425666809e-01</stageThreshold>
      <weakClassifiers>
        <_>
          <internalNodes>
            0 -1 48 -6.4100325107574463e-02</internalNodes>
          <leafValues>
            1. -6.2962961196899414e-01</leafValues></_>
        <_>
          <internalNodes>
            0 -1 29 -4.5926589518785477e-04</internalNodes>
          <leafValues>
            -6.8305921554565430e-01 1.</leafValues></_></weakClassifiers></_>
    <!-- stage 4 -->
    <_>
      <maxWeakCount>2</maxWeakCount>
      <stageThreshold>2.5355893373489380e-01</stageThreshold>
      <weakClassifiers>
        <_>
          <internalNodes>
            0 -1 23 -4.7398214228451252e-03</internalNodes>
          <leafValues>
            8.9473682641983032e-01 -6.8000000715255737e-01</leafValues></_>
        <_>
          <internalNodes>
            0 -1 37 -5.2357792854309082e-02</internalNodes>
          <leafValues>
            1. -6.4117789268493652e-01</leafValues></_></weakClassifiers></_>
    <!-- stage 5 -->
    <_>
      <maxWeakCount>1</maxWeakCount>
      <stageThreshold>5.7142859697341919e-01</stageThreshold>
      <weakClassifiers>
        <_>
          <internalNodes>
            0 -1 26 -1.0033816943177953e-04</internalNodes>
          <leafValues>
            -1. 5.7142859697341919e-01</leafValues></_></weakClassifiers></_>
    <!-- stage 6 -->
    <_>
      <maxWeakCount>2</maxWeakCount>
      <stageThreshold>-1.9166140258312225e-01</stageThreshold>
      <weakClassifiers>
        <_>
          <internalNodes>
            0 -1 17 -5.9922563377767801e-04</internalNodes>
          <leafValues>
            -8.9999997615814209e-01 7.5000000000000000e-01</leafValues></_>
        <_>
          <internalNodes>
            0 -1 44 1.3658442767336965e-03</internalNodes>
          <leafValues>
            7.0833861827850342e-01 -9.2451399564743042e-01</leafValues></_></weakClassifiers></_>
    <!-- stage 7 -->
    <_>
      <maxWeakCount>2</maxWeakCount>
      <stageThreshold>7.3811441659927368e-02</stageThreshold>
      <weakClassifiers>
        <_>
          <internalNodes>
            0 -1 49 -8.2442238926887512e-02</internalNodes>
          <leafValues>
            1. -5.7142859697341919e-01</leafValues></_>
        <_>
          <internalNodes>
            0 -1 1 -2.1246811957098544e-04</internalNodes>
          <leafValues>
            -9.2618858814239502e-01 7.0225578546524048e-01</leafValues></_></weakClassifiers></_>
    <!-- stage 8 -->
    <_>
      <maxWeakCount>2</maxWeakCount>
      <stageThreshold>-9.4348214566707611e-02</stageThreshold>
      <weakClassifiers>
        <_>
          <internalNodes>
            0 -1 6 2.3375812452286482e-04</internalNodes>
          <leafValues>
            6.8000000715255737e-01 -8.9473682641983032e-01</leafValues></_>
        <_>
          <internalNodes>
            0 -1 39 7.3751006275415421e-03</internalNodes>
          <leafValues>
            -7.4752318859100342e-01 8.0038863420486450e-01</leafValues></_></weakClassifiers></_>
    <!-- stage 9 -->
    <_>
      <maxWeakCount>2</maxWeakCount>
      <stageThreshold>8.0801293253898621e-02</stageThreshold>
      <weakClassifiers>
        <_>
          <internalNodes>
            0 -1 8 1.0956607293337584e-03</internalNodes>
          <leafValues>
            -6.1538463830947876e-01 8.8888889551162720e-01</leafValues></_>
        <_>
          <internalNodes>
            0 -1 38 -3.1398472492583096e-04</internalNodes>
          <leafValues>
            -8.0808758735656738e-01 7.4818408489227295e-01</leafValues></_></weakClassifiers></_>
    <!-- stage 10 -->
    <_>
      <maxWeakCount>1</maxWeakCount>
      <stageThreshold>5.7142859697341919e-01</stageThreshold>
      <weakClassifiers>
        <_>
          <internalNodes>
            0 -1 2 1.4532130444422364e-04</internalNodes>
          <leafValues>
            5.7142859697341919e-01 -1.</leafValues></_></weakClassifiers></_>
    <!-- stage 11 -->
    <_>
      <maxWeakCount>1</maxWeakCount>
      <stageThreshold>6.9230771064758301e-01</stageThreshold>
      <weakClassifiers>
        <_>
          <internalNodes>
            0 -1 13 6.9120898842811584e-03</internalNodes>
          <leafValues>
            6.9230771064758301e-01 -1.</leafValues></_></weakClassifiers></_>
    <!-- stage 12 -->
    <_>
      <maxWeakCount>2</maxWeakCount>
      <stageThreshold>1.7222471535205841e-01</stageThreshold>
      <weakClassifiers>
        <_>
          <internalNodes>
            0 -1 34 3.2099131494760513e-02</internalNodes>
          <leafValues>
            -6.2962961196899414e-01 1.</leafValues></_>
        <_>
          <internalNodes>
            0 -1 12 4.3217104393988848e-04</internalNodes>
          <leafValues>
            8.0185437202453613e-01 -8.0338925123214722e-01</leafValues></_></weakClassifiers></_>
    <!-- stage 13 -->
    <_>
      <maxWeakCount>2</maxWeakCount>
      <stageThreshold>1.8651093542575836e-01</stageThreshold>
      <weakClassifiers>
        <_>
          <internalNodes>
            0 -1 33 1.1398109607398510e-02</internalNodes>
          <leafValues>
            -5.1724135875701904e-01 1.</leafValues></_>
        <_>
          <internalNodes>
            0 -1 52 -1.2962275832251180e-05</internalNodes>
          <leafValues>
            7.4276942014694214e-01 -8.1348907947540283e-01</leafValues></_></weakClassifiers></_>
    <!-- stage 14 -->
    <_>
      <maxWeakCount>2</maxWeakCount>
      <stageThreshold>-2.7975755929946899e-01</stageThreshold>
      <weakClassifiers>
        <_>
          <internalNodes>
            0 -1 55 1.6071908175945282e-03</internalNodes>
          <leafValues>
            6.0000002384185791e-01 -7.8947371244430542e-01</leafValues></_>
        <_>
          <internalNodes>
            0 -1 54 1.6725636669434607e-04</internalNodes>
          <leafValues>
            5.0971609354019165e-01 -1.</leafValues></_></weakClassifiers></_>
    <!-- stage 15 -->
    <_>
      <maxWeakCount>3</maxWeakCount>
      <stageThreshold>5.9782189130783081e-01</stageThreshold>
      <weakClassifiers>
        <_>
          <internalNodes>
            0 -1 50 5.7924084831029177e-04</internalNodes>
          <leafValues>
            5.0000000000000000e-01 -8.7500000000000000e-01</leafValues></_>
        <_>
          <internalNodes>
            0 -1 64 -1.2153420539107174e-04</internalNodes>
          <leafValues>
            -7.8733640909194946e-01 6.8374818563461304e-01</leafValues></_>
        <_>
          <internalNodes>
            0 -1 65 1.5735684428364038e-03</internalNodes>
          <leafValues>
            -5.8592629432678223e-01 9.5165836811065674e-01</leafValues></_></weakClassifiers></_>
    <!-- stage 16 -->
    <_>
      <maxWeakCount>2</maxWeakCount>
      <stageThreshold>1.5128766000270844e-01</stageThreshold>
      <weakClassifiers>
        <_>
          <internalNodes>
            0 -1 14 -1.2005437165498734e-03</internalNodes>
          <leafValues>
            8.8235294818878174e-01 -5.5555558204650879e-01</leafValues></_>
        <_>
          <internalNodes>
            0 -1 27 -1.2494061375036836e-03</internalNodes>
          <leafValues>
            8.5795414447784424e-01 -7.3106527328491211e-01</leafValues></_></weakClassifiers></_>
    <!-- stage 17 -->
    <_>
      <maxWeakCount>1</maxWeakCount>
      <stageThreshold>5.7142859697341919e-01</stageThreshold>
      <weakClassifiers>
        <_>
          <internalNodes>
            0 -1 63 9.3492970336228609e-05</internalNodes>
          <leafValues>
            5.7142859697341919e-01 -1.</leafValues></_></weakClassifiers></_>
    <!-- stage 18 -->
    <_>
      <maxWeakCount>3</maxWeakCount>
      <stageThreshold>5.1395314931869507e-01</stageThreshold>
      <weakClassifiers>
        <_>
          <internalNodes>
            0 -1 4 -3.9547280175611377e-04</internalNodes>
          <leafValues>
            -8.9473682641983032e-01 6.8000000715255737e-01</leafValues></_>
        <_>
          <internalNodes>
            0 -1 43 -8.4832386346533895e-04</internalNodes>
          <leafValues>
            -9.1887170076370239e-01 5.8738440275192261e-01</leafValues></_>
        <_>
          <internalNodes>
            0 -1 62 2.0070822210982442e-04</internalNodes>
          <leafValues>
            -7.5343132019042969e-01 8.2618951797485352e-01</leafValues></_></weakClassifiers></_>
    <!-- stage 19 -->
    <_>
      <maxWeakCount>2</maxWeakCount>
      <stageThreshold>1.3536764681339264e-01</stageThreshold>
      <weakClassifiers>
        <_>
          <internalNodes>
            0 -1 40 -7.6958560384809971e-05</internalNodes>
          <leafValues>
            1. -5.1724135875701904e-01</leafValues></_>
        <_>
          <internalNodes>
            0 -1 24 -1.0114867240190506e-02</internalNodes>
          <leafValues>
            -8.6463236808776855e-01 6.9435387849807739e-01</leafValues></_></weakClassifiers></_>
    <!-- stage 20 -->
    <_>
      <maxWeakCount>2</maxWeakCount>
      <stageThreshold>1.3536764681339264e-01</stageThreshold>
      <weakClassifiers>
        <_>
          <internalNodes>
            0 -1 41 -7.7598784118890762e-03</internalNodes>
          <leafValues>
            1. -5.1724135875701904e-01</leafValues></_>
        <_>
          <internalNodes>
            0 -1 30 4.3601947836577892e-03</internalNodes>
          <leafValues>
            6.9435387849807739e-01 -8.6463236808776855e-01</leafValues></_></weakClassifiers></_>
    <!-- stage 21 -->
    <_>
      <maxWeakCount>2</maxWeakCount>
      <stageThreshold>7.5275488197803497e-02</stageThreshold>
      <weakClassifiers>
        <_>
          <internalNodes>
            0 -1 32 1.4488539099693298e-01</internalNodes>
          <leafValues>
            -4.6666666865348816e-01 1.</leafValues></_>
        <_>
          <internalNodes>
            0 -1 3 1.2515502749010921e-04</internalNodes>
          <leafValues>
            5.9965884685516357e-01 -9.2472451925277710e-01</leafValues></_></weakClassifiers></_>
    <!-- stage 22 -->
    <_>
      <maxWeakCount>2</maxWeakCount>
      <stageThreshold>-1.4106124639511108e-01</stageThreshold>
      <weakClassifiers>
        <_>
          <internalNodes>
            0 -1 46 -2.1656444296240807e-03</internalNodes>
          <leafValues>
            -7.1428573131561279e-01 6.5217393636703491e-01</leafValues></_>
        <_>
          <internalNodes>
            0 -1 16 2.6075192727148533e-03</internalNodes>
          <leafValues>
            -7.9323518276214600e-01 6.6238552331924438e-01</leafValues></_></weakClassifiers></_>
    <!-- stage 23 -->
    <_>
      <maxWeakCount>2</maxWeakCount>
      <stageThreshold>3.1999999284744263e-01</stageThreshold>
      <weakClassifiers>
        <_>
          <internalNodes>
            0 -1 19 -1.2887070188298821e-03</internalNodes>
          <leafValues>
            8.9473682641983032e-01 -6.8000000715255737e-01</leafValues></_>
        <_>
          <internalNodes>
            0 -1 60 4.6715792268514633e-03</internalNodes>
          <leafValues>
            -5.2399706840515137e-01 1.</leafValues></_></weakClassifiers></_>
    <!-- stage 24 -->
    <_>
      <maxWeakCount>2</maxWeakCount>
      <stageThreshold>2.6903823018074036e-01</stageThreshold>
      <weakClassifiers>
        <_>
          <internalNodes>
            0 -1 15 2.7747147250920534e-03</internalNodes>
          <leafValues>
            -4.1935482621192932e-01 1.</leafValues></_>
        <_>
          <internalNodes>
            0 -1 21 -1.1003278195858002e-03</internalNodes>
          <leafValues>
            7.2693186998367310e-01 -7.3096179962158203e-01</leafValues></_></weakClassifiers></_>
    <!-- stage 25 -->
    <_>
      <maxWeakCount>1</maxWeakCount>
      <stageThreshold>4.1935482621192932e-01</stageThreshold>
      <weakClassifiers>
        <_>
          <internalNodes>
            0 -1 42 -1.1065329890698195e-03</internalNodes>
          <leafValues>
            -1. 4.1935482621192932e-01</leafValues></_></weakClassifiers></_>
    <!-- stage 26 -->
    <_>
      <maxWeakCount>2</maxWeakCount>
      <stageThreshold>1.3077946007251740e-01</stageThreshold>
      <weakClassifiers>
        <_>
          <internalNodes>
            0 -1 47 2.6503659784793854e-02</internalNodes>
          <leafValues>
            -5.5555558204650879e-01 8.8235294818878174e-01</leafValues></_>
        <_>
          <internalNodes>
            0 -1 56 -4.7582079423591495e-04</internalNodes>
          <leafValues>
            6.8633502721786499e-01 -7.5018876791000366e-01</leafValues></_></weakClassifiers></_>
    <!-- stage 27 -->
    <_>
      <maxWeakCount>2</maxWeakCount>
      <stageThreshold>-4.0093964338302612e-01</stageThreshold>
      <weakClassifiers>
        <_>
          <internalNodes>
            0 -1 7 -9.4429356977343559e-04</internalNodes>
          <leafValues>
            -8.7500000000000000e-01 5.0000000000000000e-01</leafValues></_>
        <_>
          <internalNodes>
            0 -1 10 4.4115964556112885e-04</internalNodes>
          <leafValues>
            4.7406035661697388e-01 -1.</leafValues></_></weakClassifiers></_>
    <!-- stage 28 -->
    <_>
      <maxWeakCount>2</maxWeakCount>
      <stageThreshold>4.1413161903619766e-02</stageThreshold>
      <weakClassifiers>
        <_>
          <internalNodes>
            0 -1 18 -3.1517560273641720e-05</internalNodes>
          <leafValues>
            -6.9999998807907104e-01 5.8333331346511841e-01</leafValues></_>
        <_>
          <internalNodes>
            0 -1 22 -4.8929412150755525e-04</internalNodes>
          <leafValues>
            9.1804301738739014e-01 -5.4192018508911133e-01</leafValues></_></weakClassifiers></_>
    <!-- stage 29 -->
    <_>
      <maxWeakCount>2</maxWeakCount>
      <stageThreshold>3.0518329143524170e-01</stageThreshold>
      <weakClassifiers>
        <_>
          <internalNodes>
            0 -1 59 -1.5682689263485372e-04</internalNodes>
          <leafValues>
            8.8235294818878174e-01 -5.5555558204650879e-01</leafValues></_>
        <_>
          <internalNodes>
            0 -1 31 1.9070848356932402e-03</internalNodes>
          <leafValues>
            -5.7716965675354004e-01 9.1761070489883423e-01</leafValues></_></weakClassifiers></_>
    <!-- stage 30 -->
    <_>
      <maxWeakCount>1</maxWeakCount>
      <stageThreshold>6.2962961196899414e-01</stageThreshold>
      <weakClassifiers>
        <_>
          <internalNodes>
            0 -1 35 1.6592447645962238e-03</internalNodes>
          <leafValues>
            6.2962961196899414e-01 -1.</leafValues></_></weakClassifiers></_>
    <!-- stage 31 -->
    <_>
      <maxWeakCount>2</maxWeakCount>
      <stageThreshold>2.3433856666088104e-01</stageThreshold>
      <weakClassifiers>
        <_>
          <internalNodes>
            0 -1 53 -1.3458028661261778e-05</internalNodes>
          <leafValues>
            1. -6.9230771064758301e-01</leafValues></_>
        <_>
          <internalNodes>
            0 -1 5 5.8370042825117707e-04</internalNodes>
          <leafValues>
            9.2664623260498047e-01 -7.5434452295303345e-01</leafValues></_></weakClassifiers></_>
    <!-- stage 32 -->
    <_>
      <maxWeakCount>1</maxWeakCount>
      <stageThreshold>5.7142859697341919e-01</stageThreshold>
      <weakClassifiers>
        <_>
          <internalNodes>
            0 -1 0 -1.1608862405410036e-04</internalNodes>
          <leafValues>
            -1. 5.7142859697341919e-01</leafValues></_></weakClassifiers></_>
    <!-- stage 33 -->
    <_>
      <maxWeakCount>2</maxWeakCount>
      <stageThreshold>2.6855498552322388e-01</stageThreshold>
      <weakClassifiers>
        <_>
          <internalNodes>
            0 -1 36 -7.7244132990017533e-04</internalNodes>
          <leafValues>
            -5.7142859697341919e-01 1.</leafValues></_>
        <_>
          <internalNodes>
            0 -1 28 4.3116448068758473e-05</internalNodes>
          <leafValues>
            -7.3144501447677612e-01 9.2587131261825562e-01</leafValues></_></weakClassifiers></_>
    <!-- stage 34 -->
    <_>
      <maxWeakCount>3</maxWeakCount>
      <stageThreshold>5.0423437356948853e-01</stageThreshold>
      <weakClassifiers>
        <_>
          <internalNodes>
            0 -1 57 -9.9233537912368774e-04</internalNodes>
          <leafValues>
            -8.8888889551162720e-01 6.1538463830947876e-01</leafValues></_>
        <_>
          <internalNodes>
            0 -1 61 -6.0113976360298693e-05</internalNodes>
          <leafValues>
            -9.2225885391235352e-01 6.4292961359024048e-01</leafValues></_>
        <_>
          <internalNodes>
            0 -1 51 2.7208315441384912e-04</internalNodes>
          <leafValues>
            -7.5407981872558594e-01 8.2687932252883911e-01</leafValues></_></weakClassifiers></_></stages>
  <features>
    <_>
      <rects>
        <_>
          0 0 2 2 -1.</_>
        <_>
          1 0 1 2 2.</_></rects>
      <tilted>0</tilted></_>
    <_>
      <rects>
        <_>
          0 0 1 6 -1.</_>
        <_>
          0 2 1 2 3.</_></rects>
      <tilted>0</tilted></_>
    <_>
      <rects>
        <_>
          0 0 2 2 -1.</_>
        <_>
          0 1 2 1 2.</_></rects>
      <tilted>0</tilted></_>
    <_>
      <rects>
        <_>
          0 0 4 2 -1.</_>
        <_>
          0 0 2 1 2.</_>
        <_>
          2 1 2 1 2.</_></rects>
      <tilted>0</tilted></_>
    <_>
      <rects>
        <_>
          0 0 4 2 -1.</_>
        <_>
          0 1 4 1 2.</_></rects>
      <tilted>0</tilted></_>
    <_>
      <rects>
        <_>
          0 0 12 1 -1.</_>
        <_>
          4 0 4 1 3.</_></rects>
      <tilted>0</tilted></_>
    <_>
      <rects>
        <_>
          0 1 2 2 -1.</_>
        <_>
          0 2 2 1 2.</_></rects>
      <tilted>0</tilted></_>
    <_>
      <rects>
        <_>
          0 1 2 6 -1.</_>
        <_>
          0 4 2 3 2.</_></rects>
      <tilted>0</tilted></_>
    <_>
      <rects>
        <_>
          0 1 6 9 -1.</_>
        <_>
          0 4 6 3 3.</_></rects>
      <tilted>0</tilted></_>
    <_>
      <rects>
        <_>
          0 1 21 18 -1.</_>
        <_>
          0 10 21 9 2.</_></rects>
      <tilted>0</tilted></_>
    <_>
      <rects>
        <_>
          0 2 6 1 -1.</_>
        <_>
          2 2 2 1 3.</_></rects>
      <tilted>0</tilted></_>
    <_>
      <rects>
        <_>
          0 3 23 14 -1.</_>
        <_>
          0 10 23 7 2.</_></rects>
      <tilted>0</tilted></_>
    <_>
      <rects>
        <_>
          0 4 2 4 -1.</_>
        <_>
          0 6 2 2 2.</_></rects>
      <tilted>0</tilted></_>
    <_>
      <rects>
        <_>
          0 6 2 8 -1.</_>
        <_>
          0 10 2 4 2.</_></rects>
      <tilted>0</tilted></_>
    <_>
      <rects>
        <_>
          0 11 3 3 -1.</_>
        <_>
          1 11 1 3 3.</_></rects>
      <tilted>0</tilted></_>
    <_>
      <rects>
        <_>
          0 11 6 2 -1.</_>
        <_>
          2 11 2 2 3.</_></rects>
      <tilted>0</tilted></_>
    <_>
      <rects>
        <_>
          0 16 11 6 -1.</_>
        <_>
          0 18 11 2 3.</_></rects>
      <tilted>0</tilted></_>
    <_>
      <rects>
        <_>
          1 0 9 1 -1.</_>
        <_>
          4 0 3 1 3.</_></rects>
      <tilted>0</tilted></_>
    <_>
      <rects>
        <_>
          1 2 2 1 -1.</_>
        <_>
          2 2 1 1 2.</_></rects>
      <tilted>0</tilted></_>
    <_>
      <rects>
        <_>
          1 2 10 4 -1.</_>
        <_>
          1 4 10 2 2.</_></rects>
      <tilted>0</tilted></_>
    <_>
      <rects>
        <_>
          1 6 15 8 -1.</_>
        <_>
          1 10 15 4 2.</_></rects>
      <tilted>0</tilted></_>
    <_>
      <rects>
        <_>
          1 8 9 2 -1.</_>
        <_>
          4 8 3 2 3.</_></rects>
      <tilted>0</tilted></_>
    <_>
      <rects>
        <_>
          1 17 3 2 -1.</_>
        <_>
          2 17 1 2 3.</_></rects>
      <tilted>0</tilted></_>
    <_>
      <rects>
        <_>
          2 0 6 10 -1.</_>
        <_>
          5 0 3 10 2.</_></rects>
      <tilted>0</tilted></_>
    <_>
      <rects>
        <_>
          2 1 22 2 -1.</_>
        <_>
          13 1 11 2 2.</_></rects>
      <tilted>0</tilted></_>
    <_>
      <rects>
        <_>
          3 13 21 9 -1.</_>
        <_>
          3 16 21 3 3.</_></rects>
      <tilted>0</tilted></_>
    <_>
      <rects>
        <_>
          4 1 2 2 -1.</_>
        <_>
          4 1 1 1 2.</_>
        <_>
          5 2 1 1 2.</_></rects>
      <tilted>0</tilted></_>
    <_>
      <rects>
        <_>
          4 1 6 4 -1.</_>
        <_>
          4 1 3 2 2.</_>
        <_>
          7 3 3 2 2.</_></rects>
      <tilted>0</tilted></_>
    <_>
      <rects>
        <_>
          4 20 6 2 -1.</_>
        <_>
          4 20 3 1 2.</_>
        <_>
          7 21 3 1 2.</_></rects>
      <tilted>0</tilted></_>
    <_>
      <rects>
        <_>
          4 23 12 1 -1.</_>
        <_>
          8 23 4 1 3.</_></rects>
      <tilted>0</tilted></_>
    <_>
      <rects>
        <_>
          5 0 18 1 -1.</_>
        <_>
          14 0 9 1 2.</_></rects>
      <tilted>0</tilted></_>
    <_>
      <rects>
        <_>
          5 9 2 8 -1.</_>
        <_>
          5 9 1 4 2.</_>
        <_>
          6 13 1 4 2.</_></rects>
      <tilted>0</tilted></_>
    <_>
      <rects>
        <_>
          5 9 15 12 -1.</_>
        <_>
          5 13 15 4 3.</_></rects>
      <tilted>0</tilted></_>
    <_>
      <rects>
        <_>
          5 13 12 3 -1.</_>
        <_>
          9 13 4 3 3.</_></rects>
      <tilted>0</tilted></_>
    <_>
      <rects>
        <_>
          5 15 12 8 -1.</_>
        <_>
          9 15 4 8 3.</_></rects>
      <tilted>0</tilted></_>
    <_>
      <rects>
        <_>
          6 0 9 2 -1.</_>
        <_>
          9 0 3 2 3.</_></rects>
      <tilted>0</tilted></_>
    <_>
      <rects>
        <_>
          6 14 18 2 -1.</_>
        <_>
          6 14 9 1 2.</_>
        <_>
          15 15 9 1 2.</_></rects>
      <tilted>0</tilted></_>
    <_>
      <rects>
        <_>
          6 18 13 6 -1.</_>
        <_>
          6 21 13 3 2.</_></rects>
      <tilted>0</tilted></_>
    <_>
      <rects>
        <_>
          7 15 2 6 -1.</_>
        <_>
          7 15 1 3 2.</_>
        <_>
          8 18 1 3 2.</_></rects>
      <tilted>0</tilted></_>
    <_>
      <rects>
        <_>
          8 3 1 12 -1.</_>
        <_>
          8 9 1 6 2.</_></rects>
      <tilted>0</tilted></_>
    <_>
      <rects>
        <_>
          8 10 6 2 -1.</_>
        <_>
          8 10 3 1 2.</_>
        <_>
          11 11 3 1 2.</_></rects>
      <tilted>0</tilted></_>
    <_>
      <rects>
        <_>
          8 14 8 8 -1.</_>
        <_>
          8 14 4 4 2.</_>
        <_>
          12 18 4 4 2.</_></rects>
      <tilted>0</tilted></_>
    <_>
      <rects>
        <_>
          9 0 3 4 -1.</_>
        <_>
          10 0 1 4 3.</_></rects>
      <tilted>0</tilted></_>
    <_>
      <rects>
        <_>
          9 0 6 1 -1.</_>
        <_>
          11 0 2 1 3.</_></rects>
      <tilted>0</tilted></_>
    <_>
      <rects>
        <_>
          9 0 9 1 -1.</_>
        <_>
          12 0 3 1 3.</_></rects>
      <tilted>0</tilted></_>
    <_>
      <rects>
        <_>
          9 0 3 18 -1.</_>
        <_>
          9 9 3 9 2.</_></rects>
      <tilted>0</tilted></_>
    <_>
      <rects>
        <_>
          9 0 15 2 -1.</_>
        <_>
          14 0 5 2 3.</_></rects>
      <tilted>0</tilted></_>
    <_>
      <rects>
        <_>
          9 10 3 12 -1.</_>
        <_>
          9 14 3 4 3.</_></rects>
      <tilted>0</tilted></_>
    <_>
      <rects>
        <_>
          9 12 14 12 -1.</_>
        <_>
          9 18 14 6 2.</_></rects>
      <tilted>0</tilted></_>
    <_>
      <rects>
        <_>
          9 14 14 8 -1.</_>
        <_>
          16 14 7 8 2.</_></rects>
      <tilted>0</tilted></_>
    <_>
      <rects>
        <_>
          9 15 3 2 -1.</_>
        <_>
          10 15 1 2 3.</_></rects>
      <tilted>0</tilted></_>
    <_>
      <rects>
        <_>
          9 19 6 3 -1.</_>
        <_>
          11 19 2 3 3.</_></rects>
      <tilted>0</tilted></_>
    <_>
      <rects>
        <_>
          11 4 6 2 -1.</_>
        <_>
          13 4 2 2 3.</_></rects>
      <tilted>0</tilted></_>
    <_>
      <rects>
        <_>
          11 7 3 1 -1.</_>
        <_>
          12 7 1 1 3.</_></rects>
      <tilted>0</tilted></_>
    <_>
      <rects>
        <_>
          11 20 2 2 -1.</_>
        <_>
          11 21 2 1 2.</_></rects>
      <tilted>0</tilted></_>
    <_>
      <rects>
        <_>
          12 1 6 8 -1.</_>
        <_>
          14 1 2 8 3.</_></rects>
      <tilted>0</tilted></_>
    <_>
      <rects>
        <_>
          12 22 9 2 -1.</_>
        <_>
          15 22 3 2 3.</_></rects>
      <tilted>0</tilted></_>
    <_>
      <rects>
        <_>
          13 11 6 2 -1.</_>
        <_>
          15 11 2 2 3.</_></rects>
      <tilted>0</tilted></_>
    <_>
      <rects>
        <_>
          13 19 4 2 -1.</_>
        <_>
          13 20 4 1 2.</_></rects>
      <tilted>0</tilted></_>
    <_>
      <rects>
        <_>
          14 14 3 1 -1.</_>
        <_>
          15 14 1 1 3.</_></rects>
      <tilted>0</tilted></_>
    <_>
      <rects>
        <_>
          19 9 1 9 -1.</_>
        <_>
          19 12 1 3 3.</_></rects>
      <tilted>0</tilted></_>
    <_>
      <rects>
        <_>
          20 0 3 1 -1.</_>
        <_>
          21 0 1 1 3.</_></rects>
      <tilted>0</tilted></_>
    <_>
      <rects>
        <_>
          20 19 4 5 -1.</_>
        <_>
          22 19 2 5 2.</_></rects>
      <tilted>0</tilted></_>
    <_>
      <rects>
        <_>
          21 3 2 2 -1.</_>
        <_>
          21 3 1 1 2.</_>
        <_>
          22 4 1 1 2.</_></rects>
      <tilted>0</tilted></_>
    <_>
      <rects>
        <_>
          22 0 2 4 -1.</_>
        <_>
          22 0 1 2 2.</_>
        <_>
          23 2 1 2 2.</_></rects>
      <tilted>0</tilted></_>
    <_>
      <rects>
        <_>
          22 11 2 5 -1.</_>
        <_>
          23 11 1 5 2.</_></rects>
      <tilted>0</tilted></_></features></cascade>
</opencv_storage>
