<?xml version="1.0"?>
<opencv_storage>
<cascade>
  <stageType>BOOST</stageType>
  <featureType>HAAR</featureType>
  <height>30</height>
  <width>30</width>
  <stageParams>
    <boostType>GAB</boostType>
    <minHitRate>9.9500000476837158e-01</minHitRate>
    <maxFalseAlarm>5.0000000000000000e-01</maxFalseAlarm>
    <weightTrimRate>9.4999999999999996e-01</weightTrimRate>
    <maxDepth>1</maxDepth>
    <maxWeakCount>100</maxWeakCount></stageParams>
  <featureParams>
    <maxCatCount>0</maxCatCount>
    <featSize>1</featSize>
    <mode>BASIC</mode></featureParams>
  <stageNum>21</stageNum>
  <stages>
    <!-- stage 0 -->
    <_>
      <maxWeakCount>2</maxWeakCount>
      <stageThreshold>9.5238097012042999e-02</stageThreshold>
      <weakClassifiers>
        <_>
          <internalNodes>
            0 -1 17 2.0016532391309738e-02</internalNodes>
          <leafValues>
            -9.0476191043853760e-01 1.</leafValues></_>
        <_>
          <internalNodes>
            0 -1 2 -4.4219173491001129e-02</internalNodes>
          <leafValues>
            1. -8.3332234621047974e-01</leafValues></_></weakClassifiers></_>
    <!-- stage 1 -->
    <_>
      <maxWeakCount>2</maxWeakCount>
      <stageThreshold>1.8181818723678589e-01</stageThreshold>
      <weakClassifiers>
        <_>
          <internalNodes>
            0 -1 35 3.1058132648468018e-02</internalNodes>
          <leafValues>
            -8.1818181276321411e-01 1.</leafValues></_>
        <_>
          <internalNodes>
            0 -1 28 1.3452528975903988e-02</internalNodes>
          <leafValues>
            -7.7767831087112427e-01 1.</leafValues></_></weakClassifiers></_>
    <!-- stage 2 -->
    <_>
      <maxWeakCount>2</maxWeakCount>
      <stageThreshold>1.5440955758094788e-01</stageThreshold>
      <weakClassifiers>
        <_>
          <internalNodes>
            0 -1 25 -3.2977755181491375e-03</internalNodes>
          <leafValues>
            1. -7.7777779102325439e-01</leafValues></_>
        <_>
          <internalNodes>
            0 -1 13 3.3045470714569092e-02</internalNodes>
          <leafValues>
            -8.1379795074462891e-01 9.3218731880187988e-01</leafValues></_></weakClassifiers></_>
    <!-- stage 3 -->
    <_>
      <maxWeakCount>2</maxWeakCount>
      <stageThreshold>1.5251705050468445e-01</stageThreshold>
      <weakClassifiers>
        <_>
          <internalNodes>
            0 -1 30 -2.3795156739652157e-03</internalNodes>
          <leafValues>
            1. -7.7777779102325439e-01</leafValues></_>
        <_>
          <internalNodes>
            0 -1 29 -3.4657109528779984e-02</internalNodes>
          <leafValues>
            9.3029481172561646e-01 -7.8064203262329102e-01</leafValues></_></weakClassifiers></_>
    <!-- stage 4 -->
    <_>
      <maxWeakCount>2</maxWeakCount>
      <stageThreshold>5.7269725948572159e-02</stageThreshold>
      <weakClassifiers>
        <_>
          <internalNodes>
            0 -1 37 -3.4745172597467899e-03</internalNodes>
          <leafValues>
            1. -7.0212763547897339e-01</leafValues></_>
        <_>
          <internalNodes>
            0 -1 33 1.9443046301603317e-02</internalNodes>
          <leafValues>
            -7.1677219867706299e-01 7.5939738750457764e-01</leafValues></_></weakClassifiers></_>
    <!-- stage 5 -->
    <_>
      <maxWeakCount>3</maxWeakCount>
      <stageThreshold>-6.2619131803512573e-01</stageThreshold>
      <weakClassifiers>
        <_>
          <internalNodes>
            0 -1 4 -4.8034250736236572e-02</internalNodes>
          <leafValues>
            1. -6.6666668653488159e-01</leafValues></_>
        <_>
          <internalNodes>
            0 -1 19 -1.1537458747625351e-02</internalNodes>
          <leafValues>
            1. -6.1531585454940796e-01</leafValues></_>
        <_>
          <internalNodes>
            0 -1 27 -3.2139414543053135e-05</internalNodes>
          <leafValues>
            6.5579116344451904e-01 -8.4149521589279175e-01</leafValues></_></weakClassifiers></_>
    <!-- stage 6 -->
    <_>
      <maxWeakCount>2</maxWeakCount>
      <stageThreshold>-5.2461992949247360e-02</stageThreshold>
      <weakClassifiers>
        <_>
          <internalNodes>
            0 -1 39 -1.4918666565790772e-03</internalNodes>
          <leafValues>
            1. -7.0212763547897339e-01</leafValues></_>
        <_>
          <internalNodes>
            0 -1 23 6.6110113402828574e-04</internalNodes>
          <leafValues>
            -8.7355285882949829e-01 6.4966565370559692e-01</leafValues></_></weakClassifiers></_>
    <!-- stage 7 -->
    <_>
      <maxWeakCount>2</maxWeakCount>
      <stageThreshold>-1.2092703580856323e-01</stageThreshold>
      <weakClassifiers>
        <_>
          <internalNodes>
            0 -1 26 7.9788127914071083e-04</internalNodes>
          <leafValues>
            -8.4615385532379150e-01 5.2941179275512695e-01</leafValues></_>
        <_>
          <internalNodes>
            0 -1 11 1.4287407975643873e-03</internalNodes>
          <leafValues>
            -6.5033876895904541e-01 1.</leafValues></_></weakClassifiers></_>
    <!-- stage 8 -->
    <_>
      <maxWeakCount>2</maxWeakCount>
      <stageThreshold>-8.6973542347550392e-03</stageThreshold>
      <weakClassifiers>
        <_>
          <internalNodes>
            0 -1 22 -4.3569743633270264e-02</internalNodes>
          <leafValues>
            1. -6.6666668653488159e-01</leafValues></_>
        <_>
          <internalNodes>
            0 -1 15 4.1589565807953477e-04</internalNodes>
          <leafValues>
            -8.7768882513046265e-01 6.5796929597854614e-01</leafValues></_></weakClassifiers></_>
    <!-- stage 9 -->
    <_>
      <maxWeakCount>2</maxWeakCount>
      <stageThreshold>-5.8618843555450439e-01</stageThreshold>
      <weakClassifiers>
        <_>
          <internalNodes>
            0 -1 3 -1.6407758812420070e-04</internalNodes>
          <leafValues>
            -9.3548387289047241e-01 2.0000000298023224e-01</leafValues></_>
        <_>
          <internalNodes>
            0 -1 1 3.7941121263429523e-04</internalNodes>
          <leafValues>
            3.4929543733596802e-01 -1.</leafValues></_></weakClassifiers></_>
    <!-- stage 10 -->
    <_>
      <maxWeakCount>2</maxWeakCount>
      <stageThreshold>-3.4723022580146790e-01</stageThreshold>
      <weakClassifiers>
        <_>
          <internalNodes>
            0 -1 36 -4.7238543629646301e-05</internalNodes>
          <leafValues>
            4.4444444775581360e-01 -8.4210526943206787e-01</leafValues></_>
        <_>
          <internalNodes>
            0 -1 20 4.8127862100955099e-05</internalNodes>
          <leafValues>
            4.9487504363059998e-01 -1.</leafValues></_></weakClassifiers></_>
    <!-- stage 11 -->
    <_>
      <maxWeakCount>2</maxWeakCount>
      <stageThreshold>2.9195476323366165e-02</stageThreshold>
      <weakClassifiers>
        <_>
          <internalNodes>
            0 -1 6 -4.7074154019355774e-02</internalNodes>
          <leafValues>
            1. -7.0212763547897339e-01</leafValues></_>
        <_>
          <internalNodes>
            0 -1 5 6.9278298178687692e-04</internalNodes>
          <leafValues>
            7.3132312297821045e-01 -8.4358090162277222e-01</leafValues></_></weakClassifiers></_>
    <!-- stage 12 -->
    <_>
      <maxWeakCount>2</maxWeakCount>
      <stageThreshold>-1.1403797566890717e-01</stageThreshold>
      <weakClassifiers>
        <_>
          <internalNodes>
            0 -1 1 -2.2149873257149011e-04</internalNodes>
          <leafValues>
            -7.6190477609634399e-01 5.7142859697341919e-01</leafValues></_>
        <_>
          <internalNodes>
            0 -1 7 3.4299069084227085e-03</internalNodes>
          <leafValues>
            -6.8546652793884277e-01 8.0511689186096191e-01</leafValues></_></weakClassifiers></_>
    <!-- stage 13 -->
    <_>
      <maxWeakCount>2</maxWeakCount>
      <stageThreshold>6.9684326648712158e-02</stageThreshold>
      <weakClassifiers>
        <_>
          <internalNodes>
            0 -1 31 -9.2491609975695610e-03</internalNodes>
          <leafValues>
            8.0000001192092896e-01 -6.9565218687057495e-01</leafValues></_>
        <_>
          <internalNodes>
            0 -1 32 -1.2214307673275471e-02</internalNodes>
          <leafValues>
            8.1786423921585083e-01 -7.3031568527221680e-01</leafValues></_></weakClassifiers></_>
    <!-- stage 14 -->
    <_>
      <maxWeakCount>2</maxWeakCount>
      <stageThreshold>-5.3158666938543320e-02</stageThreshold>
      <weakClassifiers>
        <_>
          <internalNodes>
            0 -1 34 6.8132840096950531e-03</internalNodes>
          <leafValues>
            -7.3333334922790527e-01 8.1818181276321411e-01</leafValues></_>
        <_>
          <internalNodes>
            0 -1 14 1.2024637544527650e-03</internalNodes>
          <leafValues>
            -8.2245373725891113e-01 6.8017464876174927e-01</leafValues></_></weakClassifiers></_>
    <!-- stage 15 -->
    <_>
      <maxWeakCount>1</maxWeakCount>
      <stageThreshold>1.0344827920198441e-01</stageThreshold>
      <weakClassifiers>
        <_>
          <internalNodes>
            0 -1 9 -1.3420205505099148e-04</internalNodes>
          <leafValues>
            -1. 1.0344827920198441e-01</leafValues></_></weakClassifiers></_>
    <!-- stage 16 -->
    <_>
      <maxWeakCount>1</maxWeakCount>
      <stageThreshold>1.8518517911434174e-01</stageThreshold>
      <weakClassifiers>
        <_>
          <internalNodes>
            0 -1 10 9.5392002549488097e-05</internalNodes>
          <leafValues>
            1.8518517911434174e-01 -1.</leafValues></_></weakClassifiers></_>
    <!-- stage 17 -->
    <_>
      <maxWeakCount>2</maxWeakCount>
      <stageThreshold>-1.6591419279575348e-01</stageThreshold>
      <weakClassifiers>
        <_>
          <internalNodes>
            0 -1 8 -3.6743320524692535e-03</internalNodes>
          <leafValues>
            5.5555558204650879e-01 -8.9473682641983032e-01</leafValues></_>
        <_>
          <internalNodes>
            0 -1 24 2.0488849258981645e-04</internalNodes>
          <leafValues>
            -7.2146975994110107e-01 9.1736555099487305e-01</leafValues></_></weakClassifiers></_>
    <!-- stage 18 -->
    <_>
      <maxWeakCount>2</maxWeakCount>
      <stageThreshold>-3.1555533409118652e-01</stageThreshold>
      <weakClassifiers>
        <_>
          <internalNodes>
            0 -1 16 -5.4263458878267556e-05</internalNodes>
          <leafValues>
            -8.9189189672470093e-01 4.7368422150611877e-01</leafValues></_>
        <_>
          <internalNodes>
            0 -1 18 9.6395684522576630e-05</internalNodes>
          <leafValues>
            8.0064481496810913e-01 -7.8923958539962769e-01</leafValues></_></weakClassifiers></_>
    <!-- stage 19 -->
    <_>
      <maxWeakCount>2</maxWeakCount>
      <stageThreshold>-1.3806536793708801e-01</stageThreshold>
      <weakClassifiers>
        <_>
          <internalNodes>
            0 -1 0 -3.9907074096845463e-05</internalNodes>
          <leafValues>
            -8.1395345926284790e-01 8.4615385532379150e-01</leafValues></_>
        <_>
          <internalNodes>
            0 -1 21 1.1999980051768944e-04</internalNodes>
          <leafValues>
            -9.5063179731369019e-01 6.7588812112808228e-01</leafValues></_></weakClassifiers></_>
    <!-- stage 20 -->
    <_>
      <maxWeakCount>2</maxWeakCount>
      <stageThreshold>-6.2722802162170410e-02</stageThreshold>
      <weakClassifiers>
        <_>
          <internalNodes>
            0 -1 12 -1.0729499081207905e-05</internalNodes>
          <leafValues>
            1. -7.7777779102325439e-01</leafValues></_>
        <_>
          <internalNodes>
            0 -1 38 -3.8222502917051315e-03</internalNodes>
          <leafValues>
            7.1505498886108398e-01 -8.7154704332351685e-01</leafValues></_></weakClassifiers></_></stages>
  <features>
    <_>
      <rects>
        <_>
          0 0 3 2 -1.</_>
        <_>
          1 0 1 2 3.</_></rects>
      <tilted>0</tilted></_>
    <_>
      <rects>
        <_>
          0 0 3 10 -1.</_>
        <_>
          1 0 1 10 3.</_></rects>
      <tilted>0</tilted></_>
    <_>
      <rects>
        <_>
          0 1 18 26 -1.</_>
        <_>
          0 1 9 13 2.</_>
        <_>
          9 14 9 13 2.</_></rects>
      <tilted>0</tilted></_>
    <_>
      <rects>
        <_>
          0 6 5 3 -1.</_>
        <_>
          0 7 5 1 3.</_></rects>
      <tilted>0</tilted></_>
    <_>
      <rects>
        <_>
          0 6 18 10 -1.</_>
        <_>
          0 6 9 5 2.</_>
        <_>
          9 11 9 5 2.</_></rects>
      <tilted>0</tilted></_>
    <_>
      <rects>
        <_>
          0 24 9 4 -1.</_>
        <_>
          0 26 9 2 2.</_></rects>
      <tilted>0</tilted></_>
    <_>
      <rects>
        <_>
          1 6 27 9 -1.</_>
        <_>
          1 9 27 3 3.</_></rects>
      <tilted>0</tilted></_>
    <_>
      <rects>
        <_>
          1 7 6 6 -1.</_>
        <_>
          1 7 3 3 2.</_>
        <_>
          4 10 3 3 2.</_></rects>
      <tilted>0</tilted></_>
    <_>
      <rects>
        <_>
          1 24 18 3 -1.</_>
        <_>
          10 24 9 3 2.</_></rects>
      <tilted>0</tilted></_>
    <_>
      <rects>
        <_>
          3 0 3 2 -1.</_>
        <_>
          4 0 1 2 3.</_></rects>
      <tilted>0</tilted></_>
    <_>
      <rects>
        <_>
          3 1 3 1 -1.</_>
        <_>
          4 1 1 1 3.</_></rects>
      <tilted>0</tilted></_>
    <_>
      <rects>
        <_>
          5 20 4 1 -1.</_>
        <_>
          7 20 2 1 2.</_></rects>
      <tilted>0</tilted></_>
    <_>
      <rects>
        <_>
          6 0 2 2 -1.</_>
        <_>
          7 0 1 2 2.</_></rects>
      <tilted>0</tilted></_>
    <_>
      <rects>
        <_>
          6 4 20 6 -1.</_>
        <_>
          6 6 20 2 3.</_></rects>
      <tilted>0</tilted></_>
    <_>
      <rects>
        <_>
          6 15 2 8 -1.</_>
        <_>
          6 15 1 4 2.</_>
        <_>
          7 19 1 4 2.</_></rects>
      <tilted>0</tilted></_>
    <_>
      <rects>
        <_>
          6 23 2 6 -1.</_>
        <_>
          6 26 2 3 2.</_></rects>
      <tilted>0</tilted></_>
    <_>
      <rects>
        <_>
          7 0 4 4 -1.</_>
        <_>
          7 0 2 2 2.</_>
        <_>
          9 2 2 2 2.</_></rects>
      <tilted>0</tilted></_>
    <_>
      <rects>
        <_>
          8 2 14 6 -1.</_>
        <_>
          8 5 14 3 2.</_></rects>
      <tilted>0</tilted></_>
    <_>
      <rects>
        <_>
          9 5 1 3 -1.</_>
        <_>
          9 6 1 1 3.</_></rects>
      <tilted>0</tilted></_>
    <_>
      <rects>
        <_>
          9 5 16 4 -1.</_>
        <_>
          9 5 8 2 2.</_>
        <_>
          17 7 8 2 2.</_></rects>
      <tilted>0</tilted></_>
    <_>
      <rects>
        <_>
          10 0 1 2 -1.</_>
        <_>
          10 1 1 1 2.</_></rects>
      <tilted>0</tilted></_>
    <_>
      <rects>
        <_>
          10 3 3 9 -1.</_>
        <_>
          11 3 1 9 3.</_></rects>
      <tilted>0</tilted></_>
    <_>
      <rects>
        <_>
          11 6 15 6 -1.</_>
        <_>
          11 9 15 3 2.</_></rects>
      <tilted>0</tilted></_>
    <_>
      <rects>
        <_>
          11 9 4 3 -1.</_>
        <_>
          11 10 4 1 3.</_></rects>
      <tilted>0</tilted></_>
    <_>
      <rects>
        <_>
          12 23 18 1 -1.</_>
        <_>
          18 23 6 1 3.</_></rects>
      <tilted>0</tilted></_>
    <_>
      <rects>
        <_>
          13 6 6 1 -1.</_>
        <_>
          16 6 3 1 2.</_></rects>
      <tilted>0</tilted></_>
    <_>
      <rects>
        <_>
          14 8 6 4 -1.</_>
        <_>
          16 8 2 4 3.</_></rects>
      <tilted>0</tilted></_>
    <_>
      <rects>
        <_>
          15 9 2 3 -1.</_>
        <_>
          16 9 1 3 2.</_></rects>
      <tilted>0</tilted></_>
    <_>
      <rects>
        <_>
          16 2 5 12 -1.</_>
        <_>
          16 8 5 6 2.</_></rects>
      <tilted>0</tilted></_>
    <_>
      <rects>
        <_>
          16 6 14 5 -1.</_>
        <_>
          23 6 7 5 2.</_></rects>
      <tilted>0</tilted></_>
    <_>
      <rects>
        <_>
          16 18 1 8 -1.</_>
        <_>
          16 22 1 4 2.</_></rects>
      <tilted>0</tilted></_>
    <_>
      <rects>
        <_>
          16 22 4 8 -1.</_>
        <_>
          16 26 4 4 2.</_></rects>
      <tilted>0</tilted></_>
    <_>
      <rects>
        <_>
          19 3 2 27 -1.</_>
        <_>
          19 12 2 9 3.</_></rects>
      <tilted>0</tilted></_>
    <_>
      <rects>
        <_>
          21 10 8 16 -1.</_>
        <_>
          21 10 4 8 2.</_>
        <_>
          25 18 4 8 2.</_></rects>
      <tilted>0</tilted></_>
    <_>
      <rects>
        <_>
          23 14 6 4 -1.</_>
        <_>
          25 14 2 4 3.</_></rects>
      <tilted>0</tilted></_>
    <_>
      <rects>
        <_>
          24 0 6 26 -1.</_>
        <_>
          24 13 6 13 2.</_></rects>
      <tilted>0</tilted></_>
    <_>
      <rects>
        <_>
          24 17 2 2 -1.</_>
        <_>
          24 17 1 1 2.</_>
        <_>
          25 18 1 1 2.</_></rects>
      <tilted>0</tilted></_>
    <_>
      <rects>
        <_>
          25 11 2 12 -1.</_>
        <_>
          25 11 1 6 2.</_>
        <_>
          26 17 1 6 2.</_></rects>
      <tilted>0</tilted></_>
    <_>
      <rects>
        <_>
          25 15 4 12 -1.</_>
        <_>
          27 15 2 12 2.</_></rects>
      <tilted>0</tilted></_>
    <_>
      <rects>
        <_>
          27 10 2 4 -1.</_>
        <_>
          27 10 1 2 2.</_>
        <_>
          28 12 1 2 2.</_></rects>
      <tilted>0</tilted></_></features></cascade>
</opencv_storage>
