<?xml version="1.0"?>
<opencv_storage>
<cascade>
  <stageType>BOOST</stageType>
  <featureType>HAAR</featureType>
  <height>50</height>
  <width>50</width>
  <stageParams>
    <boostType>GAB</boostType>
    <minHitRate>9.9500000476837158e-01</minHitRate>
    <maxFalseAlarm>5.0000000000000000e-01</maxFalseAlarm>
    <weightTrimRate>9.4999999999999996e-01</weightTrimRate>
    <maxDepth>1</maxDepth>
    <maxWeakCount>100</maxWeakCount></stageParams>
  <featureParams>
    <maxCatCount>0</maxCatCount>
    <featSize>1</featSize>
    <mode>BASIC</mode></featureParams>
  <stageNum>20</stageNum>
  <stages>
    <!-- stage 0 -->
    <_>
      <maxWeakCount>1</maxWeakCount>
      <stageThreshold>8.4615385532379150e-01</stageThreshold>
      <weakClassifiers>
        <_>
          <internalNodes>
            0 -1 22 -2.6530111790634692e-04</internalNodes>
          <leafValues>
            8.4615385532379150e-01 -1.</leafValues></_></weakClassifiers></_>
    <!-- stage 1 -->
    <_>
      <maxWeakCount>2</maxWeakCount>
      <stageThreshold>1.3337123394012451e-01</stageThreshold>
      <weakClassifiers>
        <_>
          <internalNodes>
            0 -1 16 -2.5846946984529495e-02</internalNodes>
          <leafValues>
            1. -8.4615385532379150e-01</leafValues></_>
        <_>
          <internalNodes>
            0 -1 19 4.0271235629916191e-03</internalNodes>
          <leafValues>
            -8.6662876605987549e-01 1.</leafValues></_></weakClassifiers></_>
    <!-- stage 2 -->
    <_>
      <maxWeakCount>2</maxWeakCount>
      <stageThreshold>5.1704440265893936e-02</stageThreshold>
      <weakClassifiers>
        <_>
          <internalNodes>
            0 -1 21 -3.2740761525928974e-03</internalNodes>
          <leafValues>
            1. -8.4615385532379150e-01</leafValues></_>
        <_>
          <internalNodes>
            0 -1 14 2.1813005150761455e-04</internalNodes>
          <leafValues>
            -9.2812263965606689e-01 8.9785826206207275e-01</leafValues></_></weakClassifiers></_>
    <!-- stage 3 -->
    <_>
      <maxWeakCount>2</maxWeakCount>
      <stageThreshold>1.5384615957736969e-01</stageThreshold>
      <weakClassifiers>
        <_>
          <internalNodes>
            0 -1 30 1.4630992896854877e-02</internalNodes>
          <leafValues>
            -8.4615385532379150e-01 1.</leafValues></_>
        <_>
          <internalNodes>
            0 -1 17 1.7059277743101120e-03</internalNodes>
          <leafValues>
            -7.4993336200714111e-01 1.</leafValues></_></weakClassifiers></_>
    <!-- stage 4 -->
    <_>
      <maxWeakCount>2</maxWeakCount>
      <stageThreshold>-2.4740114808082581e-01</stageThreshold>
      <weakClassifiers>
        <_>
          <internalNodes>
            0 -1 8 2.3762942873872817e-04</internalNodes>
          <leafValues>
            6.9230771064758301e-01 -9.1304349899291992e-01</leafValues></_>
        <_>
          <internalNodes>
            0 -1 5 -4.0774384979158640e-04</internalNodes>
          <leafValues>
            -1. 6.6564232110977173e-01</leafValues></_></weakClassifiers></_>
    <!-- stage 5 -->
    <_>
      <maxWeakCount>2</maxWeakCount>
      <stageThreshold>3.8890011608600616e-02</stageThreshold>
      <weakClassifiers>
        <_>
          <internalNodes>
            0 -1 15 -4.5081887394189835e-02</internalNodes>
          <leafValues>
            1. -7.7777779102325439e-01</leafValues></_>
        <_>
          <internalNodes>
            0 -1 6 -1.3001737534068525e-04</internalNodes>
          <leafValues>
            -8.6429029703140259e-01 8.1666779518127441e-01</leafValues></_></weakClassifiers></_>
    <!-- stage 6 -->
    <_>
      <maxWeakCount>2</maxWeakCount>
      <stageThreshold>1.2231003493070602e-01</stageThreshold>
      <weakClassifiers>
        <_>
          <internalNodes>
            0 -1 10 1.1406266130506992e-02</internalNodes>
          <leafValues>
            -7.7777779102325439e-01 1.</leafValues></_>
        <_>
          <internalNodes>
            0 -1 33 -1.9446162332314998e-04</internalNodes>
          <leafValues>
            9.0008783340454102e-01 -8.1086587905883789e-01</leafValues></_></weakClassifiers></_>
    <!-- stage 7 -->
    <_>
      <maxWeakCount>2</maxWeakCount>
      <stageThreshold>-2.4740114808082581e-01</stageThreshold>
      <weakClassifiers>
        <_>
          <internalNodes>
            0 -1 25 1.0648919669620227e-05</internalNodes>
          <leafValues>
            -9.1304349899291992e-01 6.9230771064758301e-01</leafValues></_>
        <_>
          <internalNodes>
            0 -1 20 -9.9099343060515821e-05</internalNodes>
          <leafValues>
            -1. 6.6564232110977173e-01</leafValues></_></weakClassifiers></_>
    <!-- stage 8 -->
    <_>
      <maxWeakCount>2</maxWeakCount>
      <stageThreshold>-3.1809981912374496e-02</stageThreshold>
      <weakClassifiers>
        <_>
          <internalNodes>
            0 -1 29 7.8858996857888997e-05</internalNodes>
          <leafValues>
            -7.7777779102325439e-01 1.</leafValues></_>
        <_>
          <internalNodes>
            0 -1 27 7.6566124334931374e-05</internalNodes>
          <leafValues>
            7.4596780538558960e-01 -9.2654031515121460e-01</leafValues></_></weakClassifiers></_>
    <!-- stage 9 -->
    <_>
      <maxWeakCount>2</maxWeakCount>
      <stageThreshold>-9.2493198812007904e-02</stageThreshold>
      <weakClassifiers>
        <_>
          <internalNodes>
            0 -1 24 -1.7239691223949194e-03</internalNodes>
          <leafValues>
            1. -7.7777779102325439e-01</leafValues></_>
        <_>
          <internalNodes>
            0 -1 13 3.5078348446404561e-05</internalNodes>
          <leafValues>
            -1. 6.8528455495834351e-01</leafValues></_></weakClassifiers></_>
    <!-- stage 10 -->
    <_>
      <maxWeakCount>2</maxWeakCount>
      <stageThreshold>3.8890011608600616e-02</stageThreshold>
      <weakClassifiers>
        <_>
          <internalNodes>
            0 -1 31 1.4533568173646927e-04</internalNodes>
          <leafValues>
            -7.7777779102325439e-01 1.</leafValues></_>
        <_>
          <internalNodes>
            0 -1 7 -9.4708826509304345e-05</internalNodes>
          <leafValues>
            -8.6429029703140259e-01 8.1666779518127441e-01</leafValues></_></weakClassifiers></_>
    <!-- stage 11 -->
    <_>
      <maxWeakCount>2</maxWeakCount>
      <stageThreshold>-1.5858922898769379e-01</stageThreshold>
      <weakClassifiers>
        <_>
          <internalNodes>
            0 -1 11 4.5439647510647774e-04</internalNodes>
          <leafValues>
            -9.1304349899291992e-01 6.9230771064758301e-01</leafValues></_>
        <_>
          <internalNodes>
            0 -1 18 2.8183669783174992e-03</internalNodes>
          <leafValues>
            -8.5089689493179321e-01 8.9149594306945801e-01</leafValues></_></weakClassifiers></_>
    <!-- stage 12 -->
    <_>
      <maxWeakCount>2</maxWeakCount>
      <stageThreshold>-3.1809981912374496e-02</stageThreshold>
      <weakClassifiers>
        <_>
          <internalNodes>
            0 -1 28 -3.6807535216212273e-03</internalNodes>
          <leafValues>
            1. -7.7777779102325439e-01</leafValues></_>
        <_>
          <internalNodes>
            0 -1 26 -1.2318228255026042e-04</internalNodes>
          <leafValues>
            7.4596780538558960e-01 -9.2654031515121460e-01</leafValues></_></weakClassifiers></_>
    <!-- stage 13 -->
    <_>
      <maxWeakCount>2</maxWeakCount>
      <stageThreshold>-1.5858922898769379e-01</stageThreshold>
      <weakClassifiers>
        <_>
          <internalNodes>
            0 -1 4 -1.7504699644632638e-04</internalNodes>
          <leafValues>
            6.9230771064758301e-01 -9.1304349899291992e-01</leafValues></_>
        <_>
          <internalNodes>
            0 -1 23 -4.7284034080803394e-03</internalNodes>
          <leafValues>
            8.9149594306945801e-01 -8.5089689493179321e-01</leafValues></_></weakClassifiers></_>
    <!-- stage 14 -->
    <_>
      <maxWeakCount>2</maxWeakCount>
      <stageThreshold>-2.8532800078392029e-01</stageThreshold>
      <weakClassifiers>
        <_>
          <internalNodes>
            0 -1 32 -3.1960094929672778e-04</internalNodes>
          <leafValues>
            -9.0909093618392944e-01 5.7142859697341919e-01</leafValues></_>
        <_>
          <internalNodes>
            0 -1 3 1.6945528332144022e-03</internalNodes>
          <leafValues>
            6.2376290559768677e-01 -1.</leafValues></_></weakClassifiers></_>
    <!-- stage 15 -->
    <_>
      <maxWeakCount>1</maxWeakCount>
      <stageThreshold>5.0000000000000000e-01</stageThreshold>
      <weakClassifiers>
        <_>
          <internalNodes>
            0 -1 0 -2.6887544663622975e-05</internalNodes>
          <leafValues>
            -1. 5.0000000000000000e-01</leafValues></_></weakClassifiers></_>
    <!-- stage 16 -->
    <_>
      <maxWeakCount>1</maxWeakCount>
      <stageThreshold>5.0000000000000000e-01</stageThreshold>
      <weakClassifiers>
        <_>
          <internalNodes>
            0 -1 9 7.7089149272069335e-05</internalNodes>
          <leafValues>
            5.0000000000000000e-01 -1.</leafValues></_></weakClassifiers></_>
    <!-- stage 17 -->
    <_>
      <maxWeakCount>2</maxWeakCount>
      <stageThreshold>1.1329900473356247e-01</stageThreshold>
      <weakClassifiers>
        <_>
          <internalNodes>
            0 -1 2 -2.9542535543441772e-02</internalNodes>
          <leafValues>
            1. -7.1428573131561279e-01</leafValues></_>
        <_>
          <internalNodes>
            0 -1 34 3.8128916639834642e-04</internalNodes>
          <leafValues>
            -8.7210506200790405e-01 8.2758474349975586e-01</leafValues></_></weakClassifiers></_>
    <!-- stage 18 -->
    <_>
      <maxWeakCount>1</maxWeakCount>
      <stageThreshold>5.0000000000000000e-01</stageThreshold>
      <weakClassifiers>
        <_>
          <internalNodes>
            0 -1 35 -1.0186705912929028e-04</internalNodes>
          <leafValues>
            -1. 5.0000000000000000e-01</leafValues></_></weakClassifiers></_>
    <!-- stage 19 -->
    <_>
      <maxWeakCount>2</maxWeakCount>
      <stageThreshold>-3.4420481324195862e-01</stageThreshold>
      <weakClassifiers>
        <_>
          <internalNodes>
            0 -1 12 -1.1618509597610682e-04</internalNodes>
          <leafValues>
            -9.0909093618392944e-01 5.7142859697341919e-01</leafValues></_>
        <_>
          <internalNodes>
            0 -1 1 1.6688270989106968e-05</internalNodes>
          <leafValues>
            5.6488609313964844e-01 -1.</leafValues></_></weakClassifiers></_></stages>
  <features>
    <_>
      <rects>
        <_>
          0 0 6 1 -1.</_>
        <_>
          2 0 2 1 3.</_></rects>
      <tilted>0</tilted></_>
    <_>
      <rects>
        <_>
          0 5 5 2 -1.</_>
        <_>
          0 6 5 1 2.</_></rects>
      <tilted>0</tilted></_>
    <_>
      <rects>
        <_>
          0 11 44 12 -1.</_>
        <_>
          0 15 44 4 3.</_></rects>
      <tilted>0</tilted></_>
    <_>
      <rects>
        <_>
          0 21 43 6 -1.</_>
        <_>
          0 23 43 2 3.</_></rects>
      <tilted>0</tilted></_>
    <_>
      <rects>
        <_>
          0 35 16 4 -1.</_>
        <_>
          0 35 8 2 2.</_>
        <_>
          8 37 8 2 2.</_></rects>
      <tilted>0</tilted></_>
    <_>
      <rects>
        <_>
          1 0 4 6 -1.</_>
        <_>
          1 2 4 2 3.</_></rects>
      <tilted>0</tilted></_>
    <_>
      <rects>
        <_>
          1 3 4 9 -1.</_>
        <_>
          1 6 4 3 3.</_></rects>
      <tilted>0</tilted></_>
    <_>
      <rects>
        <_>
          2 3 8 6 -1.</_>
        <_>
          2 5 8 2 3.</_></rects>
      <tilted>0</tilted></_>
    <_>
      <rects>
        <_>
          2 16 16 2 -1.</_>
        <_>
          2 16 8 1 2.</_>
        <_>
          10 17 8 1 2.</_></rects>
      <tilted>0</tilted></_>
    <_>
      <rects>
        <_>
          2 19 2 8 -1.</_>
        <_>
          2 19 1 4 2.</_>
        <_>
          3 23 1 4 2.</_></rects>
      <tilted>0</tilted></_>
    <_>
      <rects>
        <_>
          2 30 20 14 -1.</_>
        <_>
          2 30 10 7 2.</_>
        <_>
          12 37 10 7 2.</_></rects>
      <tilted>0</tilted></_>
    <_>
      <rects>
        <_>
          4 4 36 7 -1.</_>
        <_>
          16 4 12 7 3.</_></rects>
      <tilted>0</tilted></_>
    <_>
      <rects>
        <_>
          4 16 2 15 -1.</_>
        <_>
          4 21 2 5 3.</_></rects>
      <tilted>0</tilted></_>
    <_>
      <rects>
        <_>
          4 39 2 8 -1.</_>
        <_>
          4 39 1 4 2.</_>
        <_>
          5 43 1 4 2.</_></rects>
      <tilted>0</tilted></_>
    <_>
      <rects>
        <_>
          5 40 27 1 -1.</_>
        <_>
          14 40 9 1 3.</_></rects>
      <tilted>0</tilted></_>
    <_>
      <rects>
        <_>
          6 0 39 12 -1.</_>
        <_>
          6 4 39 4 3.</_></rects>
      <tilted>0</tilted></_>
    <_>
      <rects>
        <_>
          7 0 43 12 -1.</_>
        <_>
          7 4 43 4 3.</_></rects>
      <tilted>0</tilted></_>
    <_>
      <rects>
        <_>
          7 19 4 15 -1.</_>
        <_>
          9 19 2 15 2.</_></rects>
      <tilted>0</tilted></_>
    <_>
      <rects>
        <_>
          8 6 33 1 -1.</_>
        <_>
          19 6 11 1 3.</_></rects>
      <tilted>0</tilted></_>
    <_>
      <rects>
        <_>
          13 4 33 1 -1.</_>
        <_>
          24 4 11 1 3.</_></rects>
      <tilted>0</tilted></_>
    <_>
      <rects>
        <_>
          15 31 20 2 -1.</_>
        <_>
          15 31 10 1 2.</_>
        <_>
          25 32 10 1 2.</_></rects>
      <tilted>0</tilted></_>
    <_>
      <rects>
        <_>
          16 26 33 1 -1.</_>
        <_>
          27 26 11 1 3.</_></rects>
      <tilted>0</tilted></_>
    <_>
      <rects>
        <_>
          17 22 3 8 -1.</_>
        <_>
          17 26 3 4 2.</_></rects>
      <tilted>0</tilted></_>
    <_>
      <rects>
        <_>
          19 11 28 8 -1.</_>
        <_>
          19 11 14 4 2.</_>
        <_>
          33 15 14 4 2.</_></rects>
      <tilted>0</tilted></_>
    <_>
      <rects>
        <_>
          19 12 29 2 -1.</_>
        <_>
          19 13 29 1 2.</_></rects>
      <tilted>0</tilted></_>
    <_>
      <rects>
        <_>
          22 33 3 3 -1.</_>
        <_>
          22 34 3 1 3.</_></rects>
      <tilted>0</tilted></_>
    <_>
      <rects>
        <_>
          24 17 2 9 -1.</_>
        <_>
          25 17 1 9 2.</_></rects>
      <tilted>0</tilted></_>
    <_>
      <rects>
        <_>
          25 5 2 9 -1.</_>
        <_>
          25 8 2 3 3.</_></rects>
      <tilted>0</tilted></_>
    <_>
      <rects>
        <_>
          26 14 12 6 -1.</_>
        <_>
          26 14 6 3 2.</_>
        <_>
          32 17 6 3 2.</_></rects>
      <tilted>0</tilted></_>
    <_>
      <rects>
        <_>
          27 14 4 2 -1.</_>
        <_>
          27 14 2 1 2.</_>
        <_>
          29 15 2 1 2.</_></rects>
      <tilted>0</tilted></_>
    <_>
      <rects>
        <_>
          32 10 16 16 -1.</_>
        <_>
          32 10 8 8 2.</_>
        <_>
          40 18 8 8 2.</_></rects>
      <tilted>0</tilted></_>
    <_>
      <rects>
        <_>
          33 5 2 14 -1.</_>
        <_>
          34 5 1 14 2.</_></rects>
      <tilted>0</tilted></_>
    <_>
      <rects>
        <_>
          35 18 10 6 -1.</_>
        <_>
          35 20 10 2 3.</_></rects>
      <tilted>0</tilted></_>
    <_>
      <rects>
        <_>
          38 31 2 8 -1.</_>
        <_>
          39 31 1 8 2.</_></rects>
      <tilted>0</tilted></_>
    <_>
      <rects>
        <_>
          41 9 3 27 -1.</_>
        <_>
          42 9 1 27 3.</_></rects>
      <tilted>0</tilted></_>
    <_>
      <rects>
        <_>
          41 10 4 6 -1.</_>
        <_>
          41 10 2 3 2.</_>
        <_>
          43 13 2 3 2.</_></rects>
      <tilted>0</tilted></_></features></cascade>
</opencv_storage>
